0.0495463
0.0762511
-0.253451
-0.0175476
-0.00219946
-0.192179
0.247148
0.0967184
-0.046844
-0.25121
-0.221445
-0.269525
-0.81134
0.314914
0.24785
-0.320247
0.105394
0.116085
-0.00480422
-0.112815
-0.0688703
0.0490349
-0.0833877
0.206312
0.224524
-0.409041
0.0915688
-0.136196
0.0241359
0.129287
0.0191896
-0.276075
-0.234109
-0.052642
0.133908
0.147405
0.0786534
-0.273967
-0.194494
-0.0834426
0.14769
0.215531
-0.338106
0.24386
-0.219264
-0.149163
0.307667
-0.251232
-0.167271
0.332271
0.109448
-0.317804
-0.0494674
0.360432
-0.113686
-0.335925
-0.058676
0.305819
0.215591
-0.195199
-0.310753
0.0812247
0.335811
0.0223742
-0.328908
-0.123843
-0.100011
0.260528
-0.335252
0.299578
-0.165254
-0.0234881
0.302807
0.17162
-0.0159902
-0.198343
-0.315487
-0.328908
-0.8867
-0.192087
0.169413
0.335811
0.115475
-0.237847
0.321083
-0.230336
0.0812247
0.0884684
-0.235745
0.323286
-0.233837
0.33711
-0.228748
-0.0232212
0.260612
-0.334393
-0.00746966
-0.310753
-0.246155
0.109849
0.335811
0.164227
0.293847
0.766607
0.320364
0.914728
0.334661
0.980053
-0.250195
-0.334902
-0.192087
0.0812247
0.299355
0.314114
-0.187861
0.302807
0.105811
-0.331478
-0.0159902
0.335811
0.761399
-0.103392
-0.113686
0.283617
-0.335925
0.248917
0.230116
-0.216021
0.201252
-0.185858
0.169884
-0.153384
-0.177092
0.321083
-0.310753
0.151068
0.0812247
-0.274478
-0.331545
0.0271318
0.317446
-0.192087
-0.21763
0.305176
-0.0934384
-0.337111
-0.100011
0.27972
0.260528
-0.130217
0.228515
-0.00746966
-0.239272
-0.337092
-0.749515
-0.0173824
0.33444
0.332584
0.769986
0.247607
0.17162
0.570585
0.178423
0.132875
0.0842401
0.0336486
-0.0177254
-0.0686873
-0.0898835
-0.250195
-0.332372
-0.310753
-0.192087
-0.0134349
-0.886566
-0.306894
-0.0638639
0.232958
0.333564
0.153215
-0.330469
-0.0186486
0.321083
0.180275
-0.230336
-0.296221
-0.214569
0.277593
0.166614
-0.306375
-0.113686
0.326015
-0.0162383
0.315618
-0.233837
-0.130341
0.33711
-0.136764
0.178179
0.100941
-0.309752
0.302807
-0.0849432
-0.192087
0.304657
-0.177092
-0.00746966
0.189628
-0.310753
0.33186
0.33551
-0.329937
0.293918
-0.230777
0.146341
-0.0484013
0.754412
-0.285416
0.293847
-0.301574
0.30858
-0.314849
0.154136
-0.0934384
0.0292355
0.0360645
-0.100011
0.160206
0.00448613
0.134838
-0.250195
0.321083
-0.334902
0.289195
-0.139225
0.295731
-0.333664
0.237815
-0.0466149
-0.163275
-0.251902
0.33444
-0.187861
-0.0874156
0.302807
-0.310753
-0.319125
0.252476
0.0690521
-0.32087
0.248764
0.0744743
-0.336668
0.0917336
0.277593
-0.2705
-0.103392
0.337085
-0.30839
-0.0898835
0.334546
-0.00746966
-0.332372
0.10419
-0.23959
-0.782577
0.232524
0.235781
-0.224132
-0.252725
-0.153896
-0.828332
0.0287002
0.335122
0.100781
-0.296183
-0.187238
-0.302697
-0.166038
0.0416418
0.20947
0.156411
0.0501878
-0.273809
-0.301468
-0.0258431
0.242956
0.319957
0.152173
-0.146173
-0.299993
-0.240909
0.0332859
0.243946
0.293835
0.0303513
-0.151571
-0.481717
-0.172874
0.0427416
0.238624
0.0735947
-0.142443
-0.250559
-0.830733
-0.251109
0.436095
0.345126
0.166522
-0.106118
-0.303335
-0.190474
0.102116
0.078449
0.138072
-0.0953204
0.0359134
0.0398338
0.206622
0.85686
0.389804
0.764397
0.346104
0.0296264
0.769818
0.152875
0.966365
0.194043
0.825764
0.375287
0.50195
-0.107336
0.636303
0.177491
0.659906
0.103951
0.667876
0.108259
0.130977
0.591574
0.146328
0.0531362
0.0045382
0.466394
-0.102418
0.0285673
0.0968123
-0.224469
0.00966984
-0.0948597
-0.217343
-0.277949
-0.0753327
-0.176549
0.119385
-0.479935
-0.119807
-0.703676
-0.33913
-0.835925
-0.0189337
-0.181391
-0.815756
-0.306384
-0.871415
-0.190751
0.310162
-0.428881
-0.121285
-0.553967
-0.286856
-0.00479752
-0.097469
-0.88823
-0.249021
-0.710454
0.051861
0.209429
0.0921538
-0.0406031
-0.573443
-0.00935611
-0.00218968
0.31737
-6.86657e-05
-5.20577e-06
4.52742e-05
-5.43815e-05
6.37367e-06
5.43815e-05
