-0.175283
0.139076
-0.119705
0.055656
0.16346
-0.0964615
0.198351
-0.0541057
-0.104495
0.178045
-0.0418714
-0.00489575
0.251408
-0.0666775
0.0486389
0.167431
-0.135953
-0.0794271
0.125862
-0.133178
-0.0255155
0.0610333
-0.16839
0.195725
-0.169083
-0.155134
0.142255
0.00805365
-0.0236287
0.17966
-0.063238
-0.0257004
0.00231258
-0.137491
0.0759946
0.110815
-0.103246
0.103135
0.0696263
-0.218731
0.0548683
0.0369492
-0.131742
0.162823
-0.0783315
-0.117705
0.234067
-0.121216
-0.0676742
0.213998
-0.174859
-0.0563791
0.0906313
-0.167335
0.101175
0.0916327
-0.198993
0.132598
0.0161212
-0.167697
0.185163
-0.0604482
-0.108733
0.197869
0.0607852
0.0615943
-0.022501
-0.120005
-0.153717
-0.187852
-0.112232
0.037857
0.0998778
0.0777578
0.122317
-0.0322723
-0.0604224
-0.0887462
-0.181983
-0.19375
-0.037362
-0.0452221
0.111296
0.152856
-0.00963035
0.113495
0.0875374
-0.0979891
-0.145087
-0.226432
-0.195628
0.0988573
0.104005
0.14947
0.221067
0.126806
-0.0398626
-0.0807695
-0.207831
-0.237496
-0.131531
-0.0355822
0.0820039
0.171706
0.216662
0.0850981
0.0530225
-0.158454
-0.223644
-0.179907
-0.161977
-0.0330724
0.0724559
0.121493
0.229327
0.0633491
-0.0502086
-0.0561509
-0.226956
-0.190689
-0.166653
-0.0535333
0.0634168
0.15065
0.201843
0.148197
0.0646695
-0.0573073
-0.203925
0.0496113
-0.0730446
-0.177235
0.181319
0.162274
-0.159609
0.0629463
0.0501968
-0.189764
0.0197718
0.109024
-0.1956
-0.00334159
0.15465
-0.167026
0.0294614
0.0209339
-0.0567772
0.0013334
0.105461
-0.122146
-0.0701063
0.204117
-0.0129283
-0.0849738
0.196166
0.0815591
-0.158721
0.172102
0.0419013
-0.18312
0.140873
0.0472529
-0.170924
0.124401
0.128472
-0.148845
0.0728761
0.0803202
-0.217295
0.0612031
0.104882
-0.181188
0.034755
0.157892
-0.207608
0.00954865
0.153297
-0.241294
-0.0162773
0.131493
-0.187712
-0.0321718
0.166976
-0.125176
-0.0805854
0.195707
-0.088403
-0.123527
0.200805
-0.0645084
-0.145567
0.190909
-0.0795385
-0.0884342
-0.0193319
0.092503
-0.190961
-0.0632275
-0.239087
0.20343
-0.0720378
0.0762854
-0.0430603
0.109463
0.0125988
0.136913
0.0797727
-0.0542105
0.0919903
0.0334707
-0.0729425
-0.012145
0.0700344
-0.140025
0.182111
-0.151574
0.0631369
0.122739
0.0207887
0.0812569
0.087483
0.0586939
-0.07697
0.210723
-0.086725
0.135511
-0.10467
0.0339324
0.043912
0.0668224
-0.0151923
-0.0411011
0.155718
-0.0881448
-0.0482036
-0.0352269
0.0970147
-0.0850435
0.15476
-0.161823
0.1318
-0.0996901
0.0324121
-0.00340808
-0.0989792
0.0991616
-0.148664
0.17343
-0.202244
0.182077
-0.204737
0.165508
-0.132346
0.0861195
-0.0236835
-0.0293444
0.311565
-0.140016
0.12779
-0.1014
0.056773
-0.0781968
-0.0541693
0.108509
-0.0439882
0.175484
-0.237679
0.0850249
-0.136821
0.148356
-0.0962014
0.0363974
-0.014707
-0.00906024
0.142713
-0.167735
0.166652
-0.200059
0.207157
-0.147461
0.147445
0.00226145
-0.0100265
0.103251
-0.104628
0.125562
-0.197084
0.210263
-0.103365
0.129651
-0.0746276
0.0522341
-0.028758
-0.0961576
0.148615
-0.160532
0.204807
-0.236153
0.174927
-0.143596
0.098772
-0.0267765
-0.0182829
0.0631157
-0.109303
0.177023
-0.196042
0.20107
-0.179763
0.150171
-0.114796
0.0671641
-0.0144654
-0.0576812
0.103908
-0.167249
0.187777
-0.203848
0.193402
-0.171742
0.0563256
-0.0131151
-0.0902635
0.123246
0.13794
-0.0878053
-0.224113
-0.155182
0.049279
0.0938809
0.18415
-0.0689778
-0.0671561
-0.0583788
0.0623077
0.197027
-0.0649688
-0.000882181
-0.181645
-0.0828707
0.191834
0.165215
-0.0639795
-0.21064
-0.206636
0.158681
0.176336
0.00869732
-0.212646
-0.260283
0.0596775
0.22174
0.145523
-0.0721561
-0.192634
-0.0477214
0.1525
0.111993
0.00402158
-0.174497
-0.0873724
0.100199
0.246249
0.052285
-0.140296
-0.139668
0.0143556
0.173135
0.144282
-0.0513522
-0.215775
-0.00623222
0.193334
0.152357
0.0422712
-0.190021
-0.16055
0.0760871
0.180576
0.0575909
-0.132471
-0.20011
-0.0327634
0.174817
0.118246
0.0958525
-0.105235
-0.0374384
-0.0875135
-0.0186516
0.02494
-0.104229
-0.0259339
-0.0609573
0.00767568
0.193551
0.23736
-0.0344714
-0.246479
-0.131504
0.0947696
0.196253
-0.018163
-0.116214
0.00199396
-0.0880341
0.0244495
0.172294
0.0159694
-0.00736596
-0.0458801
-0.27393
-0.0834674
0.100817
0.135885
0.0327406
-0.105052
-0.00238315
-0.100686
0.191597
0.0748959
0.0714325
-0.0863058
-0.181055
-0.0194126
0.0781072
0.125301
0.169445
-0.115541
-0.0989359
-0.210386
0.0786325
0.24833
0.0846363
-0.0809257
-0.115142
-0.0891969
0.0207266
0.266803
0.137769
-0.0334452
-0.169835
-0.161281
0.0198542
0.186099
0.161513
-0.0200393
-0.172593
-0.133698
0.223623
-0.121333
-0.0943346
0.0698047
-0.21659
0.0782416
0.0865215
-0.139842
0.118637
-0.00556549
-0.0633729
0.245207
-0.12486
-0.026858
0.145403
-0.150744
0.119067
-0.0438712
-0.156168
0.273694
-0.0783966
-0.0944012
0.185004
-0.23361
0.0493325
0.0781232
-0.301441
0.083006
0.00123838
-0.166366
0.198164
-0.0971134
0.0211865
0.142529
-0.16209
0.0303827
0.105138
-0.184446
0.173611
-0.00572657
-0.0974199
0.163685
-0.125591
-0.00906671
0.167831
-0.212668
0.0904871
0.0706218
-0.180948
0.170454
-0.0233745
-0.101486
0.193079
-0.152546
0.00853635
0.150089
-0.187408
0.134406
0.0312293
-0.164671
0.1939
-0.101042
-0.0710318
-0.0257996
0.128399
0.107784
-0.17568
-0.0991504
0.174107
-0.0373725
-0.193424
-0.0495397
0.196753
-0.0124013
-0.0476471
0.160848
0.0707732
-0.224774
-0.0533382
0.225224
-0.00644463
-0.248769
0.0233294
0.301471
-0.0894298
-0.185406
0.124034
0.0553646
-0.133234
-0.00448186
0.0693516
-0.0574674
-0.191461
0.0135963
0.198078
-0.0220712
-0.126289
0.00724462
0.182219
-0.137677
-0.0952599
0.172843
0.0738918
-0.241497
0.0123666
0.154918
-0.0355062
-0.156076
0.0956104
0.121653
-0.141375
-0.128755
0.130152
0.0821635
-0.18241
-0.045
0.215303
-0.0210101
-0.210033
0.0705487
0.196077
-0.102
-0.151905
0.149905
0.121991
-0.184902
-0.0712484
-0.0926593
-0.202037
0.0401857
0.118169
0.0874976
-0.116212
-0.164232
0.0171902
0.104105
0.0488336
-0.100779
-0.060635
0.0808615
0.140394
0.0365981
-0.185799
-0.0343015
0.0751742
0.105645
0.04995
-0.100752
-0.101261
0.112094
0.148228
0.0242035
-0.187163
0.047853
-0.0191255
0.0668168
-0.0885524
-0.168492
0.0334868
0.226199
0.0411626
-0.208662
-0.168686
0.118967
0.221244
1.66283e-05
-0.179369
-0.122109
0.170837
0.0890167
-0.0696188
-0.189766
-0.0917774
0.131549
0.149266
-0.0980778
-0.239213
-0.0193068
0.171059
0.0848452
-0.139369
-0.230373
0.0379534
0.206851
0.0694167
-0.166354
-0.141442
0.0956143
0.203239
0.00195067
-0.19255
-0.0750653
-0.0193582
0.13053
-0.00269796
-0.187522
-0.0606382
0.16021
0.119644
-0.160016
-0.108759
0.102529
0.192019
-0.0156534
-0.23069
-0.0092111
0.195074
0.107285
-0.12618
-0.0934215
0.089592
0.217647
-0.0777184
-0.234973
-0.00842416
0.280803
0.0228575
-0.0957566
-0.177812
0.12397
0.148814
-0.0578571
-0.187316
0.0564412
0.158604
0.0530544
-0.177518
-0.0586366
0.153629
0.107727
-0.114047
-0.167001
0.103535
0.157525
-0.0139199
-0.187784
-0.0914995
0.160615
0.118477
-0.151618
-0.167575
0.0809856
0.190927
-0.0433557
-0.210431
-0.0305531
0.196047
0.0810971
-0.169368
-0.130693
0.137191
0.173112
-0.0685124
-0.198351
0.0116022
0.0108791
0.0478507
-0.19118
0.104944
-0.0427899
0.0882325
0.155279
-0.20429
0.0842761
-0.170581
0.0614526
0.0345905
-0.201252
0.162122
-0.132414
0.0812101
0.104871
-0.102879
0.155429
-0.164274
0.157869
-0.0805296
-0.112345
0.193084
-0.0119109
0.0950734
-0.00623237
-0.0879763
0.187877
-0.149457
0.176442
-0.101564
-0.0732756
0.0800176
-0.131601
0.153293
-0.0675634
0.0484162
0.0664667
-0.178345
0.196667
-0.170532
0.0608263
0.0299281
-0.121002
0.167603
-0.185421
0.131829
-0.0273558
-0.112481
0.163347
-0.225059
0.152551
-0.0543032
-0.0694785
0.164724
-0.202904
0.178409
-0.0910446
-0.00635002
0.1223
-0.191122
0.201093
-0.135585
0.202522
-0.0118482
-0.00341705
-0.112693
-0.179153
-0.532861
-0.120389
-0.0445066
0.00197391
0.179863
0.0983159
0.0829024
-0.0375944
-0.107343
-0.126115
-0.195956
-0.042732
-0.144265
-0.0596895
0.116255
0.157991
0.149706
0.187629
0.0618956
0.038245
-0.134945
-0.215918
-0.0843521
-0.0400099
0.0849132
0.0963203
0.175141
0.147036
0.0679361
0.0337662
-0.0799283
-0.111327
-0.127297
-0.206964
-0.0918362
-0.0163603
0.0870446
0.151275
0.192367
0.127618
0.0314892
-0.091941
-0.173176
-0.210989
-0.177527
-0.0430055
0.0262687
0.14553
0.239661
0.17117
0.101905
0.000887147
-0.112225
-0.185506
-0.188463
-0.14215
-0.0378582
0.0816837
0.16942
-0.0934886
-0.157372
0.0326044
0.177712
0.0706593
0.0373707
-0.0622063
-0.0380056
0.0879061
0.105002
-0.0928068
-0.185089
-0.132017
0.0640123
0.184536
0.0834133
-0.081526
-0.114431
0.0525965
0.0760085
0.144876
-0.0471399
-0.157622
-0.1388
0.0714849
0.134062
0.0671525
0.0368977
-0.167987
-0.0476325
0.129725
0.166285
0.0177354
-0.112798
-0.0930393
0.0564083
0.227718
0.162715
-0.12374
-0.230576
-0.0674193
0.00661779
0.206956
0.0438515
-0.12945
-0.119121
0.0351209
0.202324
0.130346
-0.10316
-0.190178
-0.0914399
0.161316
0.179721
0.126169
-0.153171
-0.168217
-0.00788029
0.198483
0.17005
-0.0474758
-0.19623
-0.105321
0.102502
0.0984069
0.0323578
0.0923946
-0.0178007
-0.0982458
0.206702
-0.121884
0.149333
0.0201595
-0.0284908
0.0387525
-0.101549
0.158588
-0.127194
0.0463354
0.0122783
-0.150186
0.0431274
-0.0764061
0.0686954
-0.139601
0.0245102
0.139188
-0.173063
0.0596317
-0.110989
0.000128357
0.0975117
-0.0393577
0.127342
-0.211436
0.178131
-0.113227
0.0104128
0.064439
-0.106138
0.127792
-0.187037
0.161086
-0.0623493
-0.0404733
0.0778882
-0.152332
0.177604
-0.151456
0.091443
0.062807
-0.125346
0.187249
-0.15578
0.147512
-0.102574
0.0179979
0.107259
-0.149921
0.196985
-0.164791
0.105728
-0.00193448
-0.0927285
0.171462
-0.205494
0.184027
-0.114553
-0.132123
0.212896
-0.226072
-0.0619204
0.165932
-0.110714
0.151725
0.0323434
-0.115078
0.0282144
-0.0477792
-0.0820441
0.10224
-0.211486
0.0569856
0.0764663
-0.162686
0.0667048
0.0785101
-0.209345
0.106668
-0.149734
0.0273121
0.121471
-0.138356
0.0624556
-0.0886042
-0.0348117
0.12992
-0.138698
0.00990496
0.146397
-0.108203
0.0797791
0.0889477
-0.0692089
0.0873499
-0.0948681
-0.0587006
0.171164
-0.190527
0.0214698
0.155698
-0.188651
0.14304
-0.0068486
-0.0918097
0.198514
-0.152933
0.0220975
0.158989
-0.205996
0.137997
-0.00368381
-0.160552
0.195166
-0.124635
-0.0119214
0.16067
-0.194821
0.117897
0.0348942
-0.170882
0.198007
-0.0414288
-0.0796684
-0.00753407
-0.0851709
0.0522895
0.0490758
-0.0766878
-0.220008
0.0180414
0.01137
0.140931
0.00522154
-0.157114
-0.134336
0.117348
0.202744
0.0360247
-0.0733875
-0.136653
-0.0786631
0.162031
0.125263
-0.0568149
-0.197685
-0.0825574
0.106969
0.135772
-0.0164889
-0.0954825
-0.13017
0.0387605
0.179985
0.0623361
-0.0266944
-0.144258
-0.0929291
0.0471497
0.147591
0.0248526
-0.158433
-0.128026
0.00530987
0.125079
0.138177
-0.0218984
-0.209862
-0.0748588
0.146634
0.190481
0.00337509
-0.177398
-0.144528
0.0456267
0.145728
0.137149
-0.0957604
-0.188662
-0.0489322
0.154277
0.217478
0.0106501
-0.184729
-0.166775
0.0487883
0.27506
0.0499483
0.159477
0.123019
0.21585
0.166649
0.688481
0.194542
0.0858998
0.643228
0.120101
0.0798424
0.607539
0.138169
0.167885
0.125981
0.519891
0.179585
0.119607
0.0622909
0.0122201
-0.00718407
-0.0128256
-0.0301028
0.12579
-0.0732443
-0.111666
-0.106847
-0.0833883
-0.103395
-0.125932
-0.168783
-0.0838861
-0.706263
-0.173607
-0.243781
-0.705551
-0.216596
-0.688675
-0.206919
-0.135357
-0.723275
-0.191311
-0.172884
-0.662626
-0.15698
-0.125182
-0.110917
-0.584499
-0.123895
-0.0257583
-0.0382433
-0.0141152
-0.0307833
0.00599837
0.0304025
0.0483014
0.0644245
0.081985
0.113248
0.11749
0.139425
0.160881
0.162633
-0.14215
-0.166862
-0.0469214
-0.0680792
0.119574
0.214762
0.0393806
-0.0955643
-0.122026
-0.200474
-0.0323213
0.0799077
0.0745718
0.135677
-0.0219709
-0.159311
-0.137226
0.0266112
-0.00679323
0.198323
0.131525
0.0112502
-0.125907
-0.2054
-0.0821112
0.0318631
0.13115
0.107827
0.09215
0.0105601
-0.161823
-0.187341
-0.0157764
0.052493
0.178787
0.0930438
0.0583898
-0.188681
-0.244332
-0.116433
0.0467369
0.187174
0.157145
0.0472111
-0.091078
-0.181843
-0.152423
-0.0130661
0.147165
0.176919
0.169811
-0.0356945
-0.17388
-0.185906
-0.107832
0.074478
0.197086
0.169196
0.0152023
-0.119135
-0.208702
-0.13608
0.0325484
0.16428
-0.079856
0.0453884
-0.00345514
-0.0949946
-0.0157695
0.213322
-0.0170492
-0.20465
-0.0437609
-0.0569381
-0.00789099
-0.0335864
0.139937
0.0435918
-0.160697
-0.0286566
0.0604943
0.0818334
-0.0168477
0.00907314
-0.00779715
-0.12593
-0.134491
0.185452
0.0298145
-0.0852722
-0.0608266
0.0227493
-0.0179169
-0.0795722
0.0923406
0.161244
-0.101237
-0.0437991
0.0785947
0.0617717
-0.0955436
-0.048051
0.0754689
-0.023802
-0.0345975
-0.00899534
0.132923
-0.127608
-0.0415983
0.135882
0.102898
-0.163774
-0.047345
0.0971979
0.0375681
-0.168856
0.0666277
0.141317
-0.0529845
-0.156109
0.138371
0.119787
-0.157975
-0.0781032
0.195887
0.0320341
-0.190103
0.0253255
0.214599
-0.0331623
-0.0913699
0.169478
-0.183656
0.137541
-0.0254889
-0.0879309
0.119765
-0.255592
0.0325835
-0.0818471
-0.181233
0.14008
-0.194416
0.102322
0.0415399
-0.027308
0.124889
-0.0843366
0.0398262
0.0476582
-0.16302
0.197987
-0.0813963
0.0378209
0.0733097
-0.252554
0.169706
-0.118673
0.0425025
0.0955688
-0.11428
0.181421
-0.0845034
-0.0271579
0.163889
-0.137276
0.139173
-0.106684
0.0490998
0.0447291
-0.191095
0.152994
-0.00939092
-0.047223
0.138538
-0.212733
0.177132
-0.112162
-0.0660479
0.18198
-0.173685
0.106321
-0.0154385
-0.102014
0.188155
-0.210706
0.122691
-0.00627187
-0.122308
0.205115
-0.181002
0.0978012
0.116406
-0.111938
0.121178
-0.0424672
0.128335
-0.16657
0.0644652
-0.063348
0.0128162
-0.12347
0.0221791
0.0093872
0.0725943
-0.0658803
0.00221122
0.0119504
-0.12095
0.0793071
-0.0403353
-0.0161157
0.0310464
0.0734706
-0.0704957
0.0993441
-0.0314029
0.111347
-0.0038387
0.0403118
-0.0798651
0.0866851
-0.182515
0.171194
-0.110765
0.136718
-0.0741255
-0.00697373
-0.051862
0.14384
-0.187076
0.20082
-0.0973666
0.0888759
-0.180213
0.225136
-0.125659
0.144754
-0.181311
0.18263
-0.169886
0.158377
-0.177386
0.214643
-0.0949721
0.0743385
-0.0260574
0.150099
-0.142231
0.122714
-0.121867
0.101633
-0.100635
0.0963018
-0.0877268
0.0749193
-0.0993312
0.239441
-0.0504692
-0.0364408
-0.0331534
-0.25244
0.139979
-0.12965
-0.00239138
-0.0146642
-0.019218
0.133962
0.0191286
-0.0518971
0.188913
-0.195002
0.052154
0.0153821
-0.140019
0.101428
-0.126215
0.0932379
0.100903
-0.185975
0.095468
-0.171722
-0.0359953
0.131246
-0.104293
0.115898
-0.0344452
-0.0871659
0.0672182
-0.162764
0.142036
0.040958
-0.205814
0.166162
-0.118462
0.031141
0.102957
-0.204641
0.218506
-0.0330548
0.0357164
0.127531
-0.17419
0.128661
0.0142125
-0.0985454
0.190117
-0.111554
0.122432
0.029235
-0.126162
0.193872
-0.12922
-0.0159551
0.128329
-0.210975
0.161415
-0.0538364
-0.0952145
0.182791
-0.270241
-0.00871071
0.172505
-0.0683805
-0.109531
0.114955
0.0151757
-0.195295
-0.0155721
0.0388346
0.0679682
-0.0232785
0.301806
-0.00472554
-0.170708
0.122745
0.0122935
-0.186991
-0.0665624
0.157152
-0.0138573
-0.137368
0.157506
0.0780205
-0.264344
0.0438071
0.175057
-0.0955908
-0.116722
0.12908
0.0366773
-0.184969
-0.037476
0.151988
-0.0828831
-0.0683719
0.181779
-0.00640751
-0.156189
0.138378
0.0612014
-0.16873
-0.0165467
0.237476
-0.0370028
-0.217187
0.155183
0.0744237
-0.23205
0.0478222
0.152033
-0.0822078
-0.0867806
0.131844
0.0902189
-0.200024
0.0688949
0.159387
-0.167811
-0.0808135
0.197981
-0.0295846
-0.194086
0.120592
-0.00771989
-0.163652
0.100095
-0.00980485
0.15396
-0.0266407
-0.23339
-0.0229036
0.0855737
0.099317
0.0517466
-0.153374
0.125088
0.238859
0.108835
-0.122357
-0.17939
-0.0785176
0.221062
0.0682812
-0.0807487
-0.10286
0.111327
0.220006
-0.10708
-0.0737809
-0.176349
0.160878
0.201654
-0.0261893
-0.12115
-0.157371
-0.0564834
0.119704
0.090431
-0.120445
-0.155993
0.0970203
0.161133
0.0090757
-0.19622
-0.155217
0.148378
0.146869
0.0545016
-0.167968
-0.135881
0.139715
0.166032
0.00598685
-0.239751
-0.0905362
0.163613
0.136842
-0.028153
-0.196887
-0.0705405
0.175568
0.145315
-0.0932397
-0.203577
-0.0594076
0.175042
0.140582
-0.134316
-0.0337902
0.0671621
-0.0289245
0.00324963
0.0453803
0.202225
0.206229
0.0203436
-0.00709782
0.048676
-0.0738258
-0.0236898
0.0114474
0.0511679
0.192035
0.0625018
-0.00657257
-0.0650274
-0.0340067
-0.0483056
-0.00386424
0.0996181
0.175108
-0.000803964
0.1062
-0.041446
-0.0630357
-0.125597
-0.0563514
0.129721
0.178833
-0.0849983
0.0406937
0.0402717
-0.0189468
-0.112295
-0.117609
0.0171534
0.149546
0.0781524
0.154582
0.0153468
-0.0693841
-0.147742
-0.135788
-0.0273498
0.120356
0.150601
0.169994
-0.0347953
-0.108014
-0.170089
-0.155347
0.00720378
0.09783
0.210804
0.162007
0.0417573
-0.106954
-0.19488
-0.185167
-0.0664908
0.0864633
0.165417
0.149137
0.268204
0.495656
0.0768562
-0.00249366
-0.0419571
-0.0677647
-0.13362
-0.0371293
-0.0398687
-0.178087
-0.116382
-0.599236
-0.110171
-0.0919388
0.00445484
-0.0531503
0.0245632
0.157669
0.191496
0.183549
0.213258
0.195728
0.192824
0.605692
0.0519391
0.0555456
0.00042383
-0.126917
-0.111486
-0.172496
-0.21225
-0.142817
-0.209915
-0.602041
-0.165976
-0.0705228
-0.00497813
0.041303
0.0804796
0.200274
0.128199
0.192984
0.183105
0.162042
0.63634
0.114038
0.0678348
0.0337225
-0.0700313
-0.128743
-0.187607
-0.153443
-0.211338
-0.200571
-0.182303
-0.692262
-0.105897
-0.0497898
0.00705486
0.0660389
0.11791
0.158304
0.143057
0.112997
0.179176
-0.0784354
-0.0293217
-0.0503787
-0.0843671
-0.107091
-0.193157
-0.0985125
-0.0385751
-0.145594
-0.688467
-0.178223
-0.641383
-0.204537
-0.0709037
-0.580281
-0.176055
-0.0689302
-0.518193
-0.101082
-0.062428
-0.0331787
-0.0427985
0.013499
0.0152886
0.0945275
0.0676017
0.198954
0.151305
0.171902
0.13269
0.243312
0.721637
0.237815
0.615083
0.214683
0.166956
0.645559
0.183732
0.115661
0.079062
0.089264
0.0349939
0.0202708
-0.0598858
-0.062518
-0.0725712
-0.12414
-0.137277
-0.156635
-0.174476
-0.156684
-0.200512
-0.693798
-0.193422
-0.195356
-0.726719
-0.165259
-0.148857
-0.611433
-0.101976
-0.0737478
-0.267793
-0.0229098
-0.320033
-0.174691
0.0245146
-0.0298328
0.106096
0.171236
0.151425
0.160441
0.0510796
-0.0670978
-0.0416038
-0.131992
-0.141348
-0.129689
-0.00785319
0.00109529
0.20829
0.212155
0.12559
0.0758547
-0.0453024
-0.128816
-0.110326
-0.219044
-0.11606
0.0347591
0.116437
0.160794
0.25055
0.178152
-0.0876091
0.0415453
-0.0695944
-0.130861
-0.204502
-0.147607
-0.0235124
0.0562156
0.122217
0.203417
0.218504
0.100903
0.00187028
-0.148119
-0.163041
-0.199339
-0.157738
-0.0262164
0.0441011
0.109288
0.172947
0.193654
0.123918
0.004534
-0.108976
-0.206604
-0.193804
-0.15775
-0.0612698
0.0552713
0.150901
0.193772
-0.232103
-0.209832
0.0281234
-0.0355381
0.0830405
-0.00464391
-0.184904
-0.215874
-0.0679668
0.145046
0.152927
0.065791
0.0189368
-0.0679553
-0.086062
-0.0627432
0.0441814
0.0902448
-0.116888
0.0391558
-0.115702
-0.174517
0.0162453
0.18471
0.176898
0.0464865
-0.164854
-0.0913148
0.0993575
0.0629503
0.217283
0.141289
-0.0875731
-0.0317407
-0.196
-2.9786e-05
0.112982
0.189619
0.0752447
-0.121938
-0.135025
-0.158877
0.0870391
0.174057
0.142731
-0.026609
-0.114658
-0.178579
-0.0562749
0.156917
0.228508
0.0826198
-0.061072
-0.174154
-0.131103
0.0255013
0.168705
0.162079
0.0422219
-0.128981
-0.205998
-0.0842021
0.108621
0.195262
0.00760173
-0.219012
0.173462
0.0933804
-0.084789
-0.183555
-0.022823
0.205094
0.0255921
-0.0529715
-0.136493
-0.00513463
0.0676923
0.000662591
-0.168937
-0.0896162
0.14113
0.119319
-0.107666
-0.192369
-0.0722952
0.236399
0.148373
-0.11099
-0.12296
0.0265508
0.169056
0.164121
-0.116393
-0.0741729
0.0705263
0.199901
0.054628
-0.127305
-0.122636
0.101396
0.182275
-0.0233334
-0.222012
-0.0790527
0.278551
0.0330583
-0.0938375
-0.138786
0.0370485
0.204365
0.130718
-0.149882
-0.126547
0.0225676
0.214347
0.0239051
-0.136739
-0.126322
0.113121
0.18748
-0.0217678
-0.225161
-0.0968993
0.147534
0.157407
-0.0814603
-0.189219
-0.0285674
-0.207704
0.0237803
0.0664295
-0.118465
0.0436189
0.182081
0.0300345
-0.204258
0.0216063
0.123619
-0.0184577
-0.156628
0.0656985
0.181843
-0.0768522
-0.173373
0.0677388
-0.0277388
0.00630019
-0.0503732
0.0464619
0.134098
-0.173903
-0.0504708
0.168059
0.0912863
-0.197849
0.0108513
0.172934
0.00909922
-0.159043
0.0933799
0.10366
-0.063338
-0.0747306
0.203786
0.0882726
-0.0452984
-0.0881939
0.169105
-0.0131295
-0.210849
-0.0220745
0.220507
0.00218705
-0.220398
0.044723
0.190315
-0.0792417
-0.204259
0.0881052
0.136559
-0.125623
-0.130858
0.165186
0.125283
-0.172948
-0.115893
0.191188
0.0470372
-0.196504
-0.0282782
0.200814
-0.0135991
-0.0989754
0.157744
-0.128191
-0.0155616
0.140421
-0.0852762
-0.140238
0.192672
-0.0100463
-0.226086
0.103599
0.0322992
-0.220276
0.0687718
0.145
-0.195197
0.0593194
0.0565934
-0.105379
0.0198286
0.0963683
-0.085749
-0.125462
0.19854
-0.0330922
-0.117114
0.181736
-0.0738914
-0.202084
0.177097
0.0808761
-0.194492
0.0140055
0.108421
-0.148496
0.0556493
0.0581994
-0.0454958
-0.0366873
0.202053
-0.164341
-0.0780614
0.142278
-0.0110926
-0.160337
0.111423
0.0190276
-0.20019
0.147472
0.0219842
-0.174026
0.0725279
0.13744
-0.219997
-0.0135781
0.188722
-0.144356
-0.0857741
0.199778
-0.0869453
-0.136542
0.192295
-0.0146138
-0.180979
-0.0214996
0.0161737
-0.0412945
0.014819
0.0090516
-0.0705374
0.142818
-0.137857
0.0341649
0.173261
-0.0966299
0.0707614
-0.0386133
-0.179355
0.229419
-0.0444797
-0.00928908
0.0018716
-0.0757518
0.01278
0.0160542
-0.113288
0.0865633
0.09043
-0.136153
0.095069
-0.119778
-0.0473637
0.190247
-0.0749599
-0.0247602
0.170178
-0.212499
-0.0230578
0.0325613
-0.163307
0.0712578
0.0310122
-0.145871
0.186971
-0.120112
-0.0185317
0.202377
-0.128827
0.0734768
0.0530417
-0.175208
0.156399
0.0313076
-0.175243
0.215706
-0.153636
-0.0812995
0.191349
-0.251801
0.067606
0.0952053
-0.216943
0.143386
-0.0256521
-0.15183
0.192558
-0.105366
-0.056354
-0.0263202
-0.011602
-0.0881904
0.0879426
-0.205897
0.089426
-0.189217
0.0381492
0.0229304
-0.116601
0.133783
-0.107579
0.0474719
0.0170013
-0.0449154
0.188014
-0.069308
0.0713843
-0.0818201
0.148157
0.103043
-0.140422
0.0515018
-0.0915315
-0.000790788
0.138341
-0.0351383
-0.0436893
-0.127113
0.0603749
0.0781498
-0.161077
0.153074
-0.130381
-0.0248362
0.0936582
-0.230892
0.197558
-0.213486
0.130967
0.00199493
0.0672841
0.0689438
-0.0711268
0.149414
-0.122018
-0.00975571
0.141534
-0.174312
0.100223
-0.118782
-0.0300193
0.0758714
-0.158933
0.100305
-0.148099
0.059455
0.0333924
-0.133948
0.198765
-0.183895
0.127869
-0.00517198
-0.109198
0.118059
-0.0792029
0.120192
-0.0769101
0.0921393
-0.0421083
-0.018109
0.087191
-0.0908285
0.198352
-0.156578
0.196694
-0.181692
0.192304
-0.0967191
0.0461328
0.0170363
-0.022704
0.130203
-0.0928254
0.0978853
-0.166463
0.151366
-0.156937
0.0933722
-0.0668746
0.0570133
0.0295767
-0.128318
0.137907
-0.207205
0.197248
-0.223771
0.189768
-0.181794
0.0567162
-0.0218891
-0.107717
0.0622192
-0.152538
0.241919
-0.116305
0.170438
-0.135638
0.156842
-0.107312
0.072491
0.0217232
-0.060309
0.111686
-0.194428
0.142811
-0.21306
0.209601
-0.229402
0.119773
-0.0618586
-0.00775056
0.0637319
-0.11856
0.161289
-0.187404
0.206846
-0.195256
0.21733
-0.000812828
-0.0085018
0.0362032
0.243214
-0.227058
0.179829
-0.179577
0.22204
-0.0654332
0.0752081
-0.209227
0.168548
-0.130876
0.160561
-0.20449
0.153011
-0.0618542
0.256364
-0.0773029
0.0110438
-0.0554011
0.201827
-0.166827
0.0355403
0.00641944
0.103828
-0.0464139
0.0410302
-0.172418
0.08847
-0.117057
0.134721
-0.0957183
0.0542011
-0.047313
0.0297824
-0.174517
0.0656329
-0.047139
0.115476
0.021451
-0.00880632
0.0916048
-0.0295412
0.0938864
-0.0421916
0.0162594
0.0128096
0.0492009
-0.0877603
0.0368799
-0.0671011
0.124225
-0.14309
0.108056
-0.123749
0.110026
-0.131579
0.104768
-0.137686
0.139422
-0.157269
0.156833
0.17746
-0.105452
0.080906
0.0260223
-0.0477784
0.0933435
-0.124003
0.15726
-0.186199
0.247045
-0.15919
0.154397
-0.165654
0.121976
-0.175849
0.12214
-0.160496
0.0332301
0.0398572
-0.0121341
0.0614929
-0.027314
0.118408
-0.142272
0.101239
-0.0446093
0.104955
-0.115823
0.149476
-0.131176
0.114469
-0.132156
0.0805242
0.00291207
0.0143948
0.023871
-0.0318559
0.0726739
-0.144587
0.153435
-0.0636637
0.0935039
-0.161094
0.253911
-0.109274
0.237321
-0.2212
0.145707
-0.0782467
0.0283335
-0.0789716
0.0383522
0.0824689
-0.0896158
0.135685
-0.128418
0.159701
-0.175127
0.207428
-0.211141
0.203218
-0.192089
0.160325
-0.147634
0.0708717
0.0191263
-0.0193549
0.157749
-0.18147
0.16479
-0.122061
0.0431427
0.00513616
-0.0912408
0.17285
-0.206779
0.17976
-0.163352
0.0290794
0.0130658
-0.0799701
0.182047
-0.178805
0.0959713
-0.10905
0.073151
-0.0207971
-0.0750487
0.0879942
-0.0694968
0.121862
-0.0922234
0.127213
-0.030604
-0.0478027
0.115455
-0.152721
0.197263
-0.193876
0.160563
-0.0595486
-0.000397337
0.104434
-0.141544
0.149318
-0.222065
0.204638
-0.0692917
0.0519199
0.0962649
-0.137166
0.173659
-0.184212
0.201493
-0.151495
0.103961
0.0534706
-0.0744778
0.161673
-0.204414
0.200731
-0.153707
0.0956055
-0.0198557
-0.0666522
0.137069
-0.195197
0.203285
0.0708453
0.0399154
0.0058997
0.105332
0.0019287
0.0156548
0.146803
-0.185204
0.0127325
-0.103402
-0.0370486
0.15497
-0.179721
0.0580534
-0.0411308
-0.12564
0.199085
-0.020246
0.0558579
-0.0667003
-0.01262
0.157151
-0.129882
0.0904027
-0.00888388
-0.0419759
-0.00756777
0.0663452
0.000572456
0.078288
-0.159358
0.200449
-0.0420287
0.0114925
-0.00486542
-0.13015
0.264162
-0.0848699
0.0297085
0.0909153
-0.120277
0.00420371
-0.152161
0.0538658
0.108406
-0.0565385
0.103097
-0.134715
0.00908647
0.0919155
-0.185515
0.230012
-0.0905094
0.0268542
0.0891452
-0.19462
0.183173
-0.0977569
-0.0249334
0.127203
-0.19826
0.177291
-0.0945038
-0.033383
0.0110806
0.177823
-0.13608
-0.0631072
0.1983
-0.133619
0.0947289
0.102971
-0.152483
0.115648
-0.00983106
-0.12193
0.181762
-0.153467
-0.069717
0.166161
-0.0589609
-0.0483234
0.122411
-0.162145
0.169999
-0.0284581
-0.105249
0.203604
-0.120798
0.0208071
-0.0250325
-0.0466464
-0.0313224
0.0930586
-0.2021
0.166522
-0.025944
-0.0755331
0.148001
-0.100514
-0.0634087
0.21356
-0.196127
0.0882824
0.0231313
-0.237478
0.193171
-0.0662076
-0.077795
0.163167
-0.14605
-0.0239099
0.141607
-0.197816
0.0566511
0.0682693
-0.187033
0.193128
-0.0438458
-0.115304
0.203792
-0.133698
0.000554594
0.155568
-0.190703
0.0968286
0.0581481
-0.185481
-0.0528322
0.114452
0.00691746
-0.120778
0.139052
0.078757
-0.170694
0.144744
-0.0948835
-0.22244
0.161329
-0.00463792
-0.198613
0.0883574
0.0201155
-0.199632
0.187197
0.0127191
-0.240264
0.0957969
0.121366
-0.218468
0.142166
0.0581892
-0.197872
0.0916282
0.0451103
-0.122982
0.117466
0.0955736
-0.183382
0.125732
0.0541217
-0.0981179
0.114903
0.0103885
-0.123929
0.140875
0.0484197
-0.2059
0.14041
0.0206466
-0.198033
0.115057
0.114921
-0.17403
0.1039
0.0852268
-0.213223
0.0731808
0.0872207
-0.213249
0.112008
0.0942498
-0.195768
0.0985124
0.106746
-0.201782
0.10419
0.104018
-0.202102
0.0981248
0.102238
-0.201698
-0.492968
-0.0405474
0.024681
-0.106691
-0.0707184
0.107789
-0.104022
-0.161383
0.094404
0.0367031
-0.132873
0.0221268
0.125341
-0.15309
-0.0314052
0.202632
0.0162906
-0.0106225
0.0198289
0.0489086
-0.185133
0.0772393
0.153822
-0.183195
0.0215417
0.113263
-0.109381
-0.00977245
0.240938
-0.00485433
-0.166982
0.127439
0.0788888
-0.0597407
0.0403056
0.0433705
-0.0167204
-0.12912
0.180167
-0.036506
-0.0898278
0.124431
0.0501656
-0.166647
0.0670349
0.195965
-0.144768
-0.0629453
0.171781
-0.0700946
-0.177099
0.117872
0.060871
-0.163405
0.0439818
0.158698
-0.176869
-0.0442494
0.200937
-0.0830636
-0.14792
0.181042
0.0324343
-0.200781
-0.0555749
-0.00581177
-0.0233662
0.0228149
-0.0638529
0.0889622
0.195396
-0.123381
-0.113832
0.0566376
0.0610724
-0.196318
-0.0801194
0.144227
-0.0132531
-0.196869
0.126179
0.157805
-0.0652174
-0.0975184
0.0978118
0.0859096
-0.17807
-0.0278011
0.186827
-0.073955
-0.141811
0.073359
0.180199
-0.0859487
-0.103759
0.162271
-0.00801753
-0.150574
0.0336554
0.0591251
0.0999094
-0.228501
0.0150216
0.160629
-0.0355931
-0.122952
0.219751
0.084018
-0.155518
0.0121889
0.194925
-0.0209749
-0.207237
0.0656734
0.163818
-0.148652
-0.140247
0.164543
0.0816774
-0.18788
-0.022915
0.197977
-0.03572
-0.185389
0.0938176
0.163243
-0.135809
-0.121426
-0.0514512
-0.573711
0.058843
0.137585
-0.0980609
-0.190483
0.143767
0.158434
-0.0719795
-0.120898
0.0759729
0.164438
-0.0938274
-0.215447
0.0803533
0.181565
0.0107247
-0.179683
0.136327
0.234445
-0.119125
-0.165283
0.037282
0.208345
-0.0339
-0.109726
0.0297561
0.244679
-0.00283759
-0.16105
-0.0141954
0.197011
0.00133924
-0.0528247
-0.0217452
0.130816
0.0745652
-0.141787
-0.0818717
0.186922
0.075388
-0.147454
-0.0447344
0.222541
0.119409
-0.180912
-0.0727216
0.183327
0.0950495
-0.200606
-0.126958
0.140344
0.0960415
-0.117032
-0.127103
0.160343
0.139207
-0.141972
-0.13562
0.137219
0.157457
-0.125348
-0.160115
0.119686
-0.111862
-0.279892
0.184617
0.0301666
0.0164252
-0.071722
-0.126882
0.125376
0.0145928
-0.0202941
-0.101233
0.00601063
0.177334
0.035405
-0.119529
-0.150775
0.186722
0.150715
-0.0534283
-0.186552
-0.00871319
0.102006
0.155432
-0.123296
-0.110426
0.0209412
0.207817
0.136896
-0.0491748
-0.0923512
0.190586
0.139627
-0.130259
-0.170643
0.0240614
0.163942
0.13562
-0.120744
-0.141726
0.128565
0.142543
-0.0695926
-0.169219
0.00746538
0.211099
0.0725871
-0.174592
-0.137908
0.100634
0.174956
-0.0115897
-0.160572
-0.0684139
0.183129
0.127199
-0.134405
-0.17158
0.0730672
0.200059
0.00484454
-0.198535
-0.0701288
0.179787
0.143978
0.156222
-0.0678369
0.0986186
0.0392442
0.051586
-0.0240101
-0.123045
-0.126192
-0.0364275
0.196374
-0.0190271
-0.159593
-0.177333
0.0527619
0.168338
0.075747
-0.0546519
-0.070471
0.0533281
0.113289
-0.0779867
-0.097612
-0.0812637
-0.00118113
0.142509
0.083982
-0.0942161
-0.000192499
0.070808
0.109027
0.099324
-0.0411342
0.0949861
0.113192
-0.0302954
-0.0198256
-0.0221026
-0.0991481
-0.101355
0.100605
0.213454
0.0138523
-0.188561
-0.181666
0.0485814
0.135394
0.135156
-0.133455
-0.162641
0.00414554
0.139827
0.00194459
-0.163592
-0.0991821
-0.157236
0.200832
0.13319
-0.0497501
-0.199014
-0.0784077
0.163639
0.155158
-0.0495234
-0.194369
0.0148144
-0.147423
-0.545655
-0.0654576
0.119345
0.16574
0.024597
-0.166969
-0.145107
0.0113504
0.0525645
0.200168
-0.010983
-0.15452
-0.183955
0.0124448
0.144186
0.168668
-0.0157219
-0.0744809
-0.137912
0.0513528
0.218809
0.148387
-0.034718
-0.0941652
-0.0765612
0.0839421
0.137514
0.0912518
-0.118111
-0.205388
-0.0219139
0.05376
0.148315
0.111458
-0.0944674
-0.154116
-0.120245
0.0968343
0.221528
0.0603515
-0.112497
-0.226529
-0.106867
0.131336
0.216045
0.0791543
-0.139828
-0.215059
-0.0802294
0.0819138
0.206405
0.0990897
0.17134
0.115002
-0.0919394
-0.196202
-0.0986156
0.0954314
0.206979
0.0936539
-0.112914
-0.19773
-0.00349297
0.197711
0.0278819
-0.00834411
-0.177991
-0.292477
0.0135815
0.0654325
0.0672176
0.0204923
-0.0151588
0.0148373
-0.0316529
-0.0368841
0.0734357
0.184173
0.0873071
-0.0715889
-0.113161
-0.00872398
-0.0456085
0.15484
0.208018
0.117311
-0.090955
-0.0380197
-0.134992
-0.0769906
0.0232054
0.122185
0.0371326
-0.0848962
-0.1278
-0.0499661
-0.113146
0.160339
0.161182
0.0518426
-0.143828
-0.19046
-0.115694
0.0673753
0.0894689
0.130916
0.0504027
-0.146726
-0.226395
-0.104121
0.0299555
0.158232
0.0822148
-0.061563
-0.187058
-0.179973
-0.10898
0.103247
0.206107
0.176244
0.0205772
-0.16124
-0.181776
-0.0659178
0.0918138
0.204396
-0.0809235
0.285891
0.606743
0.0953439
0.0497088
-0.210657
-0.195312
-0.157328
0.0945023
0.012573
0.14026
0.109561
0.0871953
-0.130965
-0.203985
-0.166563
-0.0936499
0.119445
0.0346523
0.265902
0.0214878
-0.054535
-0.203969
-0.165464
-0.0056843
0.103806
0.253924
0.0392826
0.0485208
-0.109645
-0.236653
-0.174221
-0.0132449
0.0923112
0.198495
0.159394
0.0225232
-0.100308
-0.198185
-0.17422
-0.000175675
0.0588231
0.190732
0.183049
0.0774357
-0.0888955
-0.186323
-0.183312
-0.0850508
0.0445781
0.148013
0.18625
0.12266
-0.0830224
-0.186063
-0.186502
-0.102378
0.0653452
0.188285
0.199891
0.112207
-0.0459683
-0.18009
-0.197302
-0.068766
-0.0414125
0.0745392
0.319364
0.0355109
0.00281769
-0.102249
-0.162141
-0.146355
-0.0318481
0.0873005
0.028992
0.10491
0.101013
-0.00145808
-0.0067713
-0.106809
-0.0320819
-0.278056
0.0425905
-0.000611373
0.263048
0.0421568
0.154644
0.000747916
-0.18356
-0.0616587
-0.14834
-0.130431
-0.225609
0.0158347
0.174985
0.27458
0.0292618
0.0431316
-0.119751
-0.010266
-0.131228
-0.173032
-0.160734
-0.0829787
0.0331883
0.188201
0.204155
0.0150902
-0.0312712
-0.0347529
-0.0927163
-0.268449
-0.0377961
-0.0738139
0.0250096
0.141993
0.157271
0.116111
-0.146765
-0.223936
-0.157798
-0.163183
0.0569488
-0.00978666
0.0936951
0.108901
0.208626
-0.0693575
-0.00338181
0.0648996
0.315797
0.187499
0.175276
0.437712
0.0253569
-0.0201232
-0.241586
-0.22098
-0.170564
-0.0689127
0.0800841
0.019689
0.136202
0.182629
0.162085
0.111087
0.0278865
-0.0396227
-0.123575
-0.0746337
-0.028354
-0.0945262
-0.0434445
-0.0456229
0.0776359
0.0600214
0.216672
0.135528
0.0728671
0.126933
0.0442816
-0.287121
-0.0636757
-0.142622
-0.0456758
-0.0996256
0.0487436
0.152881
0.076902
0.159566
0.0303907
0.00658974
0.010687
-0.0742978
-0.101687
-0.135638
-0.0774047
0.0642877
-0.00930624
0.0106904
0.161269
0.0599196
0.0980423
0.0596082
-0.0212423
-0.0496375
-0.255224
-0.161627
-0.0695266
-0.0417103
0.0268495
-0.163357
-0.473708
0.0916944
0.0392344
0.108508
0.0571346
0.108551
0.17482
0.562364
0.0763973
-0.0032287
-0.0136331
-0.11162
-0.19751
-0.206014
-0.182928
-0.122487
-0.42952
0.0345673
0.0484174
0.035515
0.155703
0.194261
0.165391
0.145728
0.571726
-0.0569255
-0.0617704
-0.14475
-0.12515
-0.236562
-0.21624
-0.0704386
-0.490417
-0.0654197
0.00222921
0.0633832
0.133922
0.166448
0.0672469
0.158696
0.573968
0.0810493
0.0342135
-0.0697969
-0.0831006
-0.155542
-0.181102
-0.152047
-0.0711973
-0.449777
-0.0399349
0.0922673
0.186796
0.200694
0.204695
0.158538
0.0722374
0.525429
-0.012868
-0.101023
-0.143567
-0.142866
-0.166879
-0.0224696
-0.155955
-0.0504196
-0.463524
0.00731416
0.0661515
0.138665
0.0749377
0.138667
0.186276
0.156911
0.755915
0.197708
0.135013
0.413128
0.160716
0.0565775
-0.0049276
-0.106609
-0.188405
-0.0454454
-0.162113
-0.131565
-0.422017
-0.151115
-0.145342
-0.0929846
-0.439222
0.0212868
0.0943117
0.0855838
0.13049
0.165153
0.16041
0.408929
0.0102235
0.108037
0.515219
0.137562
0.108629
-0.0214717
-0.063715
-0.099523
-0.130149
-0.167939
-0.0904514
-0.182659
-0.636326
-0.200212
-0.111212
-0.0358505
-0.409827
-0.0145376
0.0725524
0.159499
0.0720274
0.173091
0.146154
0.631372
0.0587655
0.251438
0.466233
-0.0643338
0.0452737
-0.105328
-0.0337103
-0.176612
-0.144483
-0.0378908
-0.111642
-0.213283
-0.0405289
-0.0587752
0.103517
0.04613
0.0035579
0.0682321
0.144696
0.159669
0.0788627
0.134297
0.25188
0.193506
0.68775
0.14114
0.155715
0.554397
0.29588
0.196989
0.566096
0.175608
0.118564
0.0388109
-0.0864404
-0.109585
-0.0936186
-0.0449403
-0.10256
-0.0597388
-0.0240547
-0.0458081
-0.16486
-0.0857628
-0.0766249
-0.75084
-0.2183
-0.134292
-0.384189
-0.183662
-0.110178
-0.584401
-0.157736
-0.123981
-0.0833774
-0.0348872
-0.0205928
0.0197639
0.0292955
-0.0233901
0.0659197
0.0842559
0.110302
0.190621
0.170884
0.195859
0.128943
0.663114
0.211274
-0.181669
-0.209477
-0.227346
-0.195178
-0.240038
-0.613359
-0.227102
-0.176906
-0.686444
-0.152983
-0.154931
-0.679997
-0.153736
-0.150839
-0.650275
-0.18585
-0.222393
-0.597409
-0.110241
-0.104686
-0.591563
-0.0664608
-0.116792
-0.0925601
-0.561793
-0.0897652
-0.14194
-0.0728735
-0.531208
-0.0544517
0.113695
-0.101768
-0.0511706
-0.499153
0.0245126
-0.0451874
0.0119677
0.0420917
-0.0734218
-0.068739
0.0484176
-0.0047717
-0.112057
0.0338177
0.00614596
0.139559
-0.00266018
0.0180946
-0.0432014
0.0565501
0.0278581
-0.068011
0.0585469
0.00260765
0.100468
0.00254779
0.0680745
0.0870664
0.161423
0.00866364
-0.0807838
0.0808385
0.0587923
0.0663915
-0.190513
-0.0773746
-0.109156
-0.16387
-0.135077
-0.514021
0.0704621
-0.178759
-0.366176
-0.152494
-0.0541542
-0.217175
-0.472613
-0.0939022
-0.0665642
0.0819617
-0.092639
0.0899057
-0.0164759
-0.00566834
0.0138637
-0.0145368
0.0556546
-0.0973153
-0.00245156
-0.0828715
-0.0268928
0.107127
0.204269
0.0401835
0.119948
-0.00454307
0.589938
0.0633128
0.179774
0.578668
0.2319
0.220325
0.715122
0.145416
0.616993
0.227756
0.106631
0.399833
0.151499
0.171583
0.70124
0.0972378
0.139418
0.607941
0.125031
0.119984
0.11991
0.524164
0.137683
0.151677
0.0227566
0.0999693
-0.0195231
-0.0175967
0.0817947
-0.011519
-0.0874819
-0.0383585
-0.0807929
-0.0245515
-0.135924
-0.168894
-0.0869519
-0.0294738
-0.0325316
-0.139018
0.077908
0.0590925
0.0197222
0.120096
0.10233
0.177376
0.215612
0.572133
0.0739506
0.115585
0.614613
0.103457
0.0774685
0.480823
0.105414
0.127935
-0.0424411
0.0287296
-0.145899
-0.103927
-0.108484
-0.0686803
-0.212617
-0.207408
-0.60538
-0.215789
-0.174627
-0.688107
-0.184848
-0.13795
-0.507917
-0.0688813
-0.0770092
-0.114412
0.0270113
0.0333398
0.0625576
0.0191188
0.0312099
0.180947
0.115247
0.106919
0.686491
0.0241229
0.12907
0.557389
0.185318
0.0619373
0.0829991
0.488729
0.0420398
-0.0712743
-0.0453165
-0.0644447
-0.0822005
-0.0846183
-0.136864
-0.236313
-0.0476749
-0.0128165
-0.0673727
0.0364227
0.0522571
0.165401
0.104852
0.0835938
0.201755
0.122803
0.56091
0.0762627
0.0616778
-0.0177378
-0.101603
-0.149538
-0.111911
-0.166068
-0.13096
-0.152229
-0.562044
-0.16028
-0.0584964
-0.0671275
0.0302106
0.125676
0.0663416
0.0505435
0.134832
0.207147
0.0116203
0.129723
0.538376
0.0357356
0.0803817
-0.0603425
0.0208759
-0.00684462
-0.139006
-0.0936606
-0.0643688
-0.195643
-0.50734
-0.0979729
-0.229721
0.000710907
0.0120377
0.0129737
0.16088
0.160714
0.0894585
0.058036
0.163177
0.0901709
0.15445
0.451157
0.0137218
-0.0739505
-0.025218
-0.136773
-0.0406774
-0.126224
-0.029051
-0.200947
-0.0354313
0.110693
0.111865
0.177188
0.0400328
0.104498
0.216697
0.157788
0.0448216
0.0252404
-0.0438317
-0.159556
-0.128926
-0.157563
-0.0713959
-0.0299255
-0.0239243
-0.035908
0.150699
0.239525
0.0510614
0.0907817
0.198025
0.129494
0.0393093
-0.0180662
-0.0526299
-0.239084
-0.28978
-0.104816
-0.146313
-0.0571628
-0.0514071
0.081256
0.0378384
0.0520097
0.055049
0.126016
0.119892
0.0401942
-0.0299255
0.124002
-0.0344224
-0.117164
-0.0863633
-0.0250287
0.0685479
-0.159776
0.00914884
0.00767212
0.0182783
-0.00826366
0.00656923
0.156817
0.0367673
0.129455
-0.0239167
0.11269
0.0245258
-0.125455
-0.15683
-0.0779694
-0.0589211
-0.0620309
0.0630401
0.105974
0.0657508
0.0220331
0.470228
0.014127
0.0783918
0.0445534
-0.125667
-0.156803
-0.121003
-0.0709605
-0.189685
0.137144
0.118315
0.0941512
0.120337
0.0943684
0.092596
-0.065205
-0.0925296
-0.0867973
-0.126943
-0.155022
-0.0257447
-0.0608006
0.0456889
0.0931539
0.142492
0.210028
0.0803161
0.123582
-0.136011
-0.106721
-0.0795836
-0.0784459
-0.186112
-0.154837
-0.049543
0.00408192
0.241869
0.0668693
0.2658
0.0419689
-0.00868242
0.0610365
-0.0280424
-0.155791
-0.125594
-0.0890507
-0.0686793
-0.085125
-0.0278077
0.100684
0.109486
0.0754767
0.130432
-0.0558905
-0.0191505
-0.0995872
-0.147915
0.0770141
-0.0292764
0.0382025
0.0857651
0.102362
0.0672787
0.102444
0.0601378
-0.0981456
-0.00587815
-0.258692
-0.122117
-0.165678
0.0243192
0.0259797
0.0594054
0.137016
0.178969
0.187901
-0.198251
-0.0663947
-0.261595
-0.235468
-0.00210186
-0.0217243
0.0600611
0.0791919
0.144027
0.14832
0.101714
-0.137958
-0.0739368
-0.131538
-0.164783
-0.0799296
0.0198603
-0.0496085
0.0318055
0.11447
0.00317594
-0.0115895
0.0434952
-0.156122
-0.06738
-0.0751655
-0.171005
-0.0112509
0.0391725
0.0264391
0.0851378
0.17373
0.145189
-0.012997
-0.165664
-0.0987593
-0.121583
-0.0923597
0.0458443
0.0289246
0.0803455
0.205601
-0.0120813
0.00350013
-0.00346007
0.00977491
-0.105968
0.136965
0.0824324
0.615873
0.0834965
0.120884
-0.0323808
-0.249155
-0.028946
0.0231213
-0.0647175
0.0283859
0.181905
0.205202
0.0439212
-0.0540427
-0.174005
-0.172605
-0.0603306
-0.0499728
0.00281498
0.110084
0.133713
0.0176776
0.0129904
0.00228517
0.0164979
-0.166106
-0.046819
0.0288098
-0.0779742
0.0287822
0.145929
0.0330471
-0.0710878
-0.0441922
-0.183662
-0.205503
-0.114597
0.05344
0.0777313
0.190061
0.0434164
0.0206749
-0.0382692
-0.173252
-0.0678929
-0.0103955
-0.0403828
0.0591426
0.0415201
0.157811
0.108877
-0.0309161
-0.0939128
-0.124119
-0.231245
-0.0670355
0.0289409
0.0216269
0.137434
0.106297
0.0126686
-0.0811614
-0.00443267
0.104275
0.389676
0.223912
0.0590402
-0.0312707
-0.102655
-0.135354
-0.0770413
0.0511412
0.0829306
0.117897
0.00282813
-0.065302
-0.0445554
-0.151137
-0.0524058
-0.00662705
0.070974
0.0606974
0.16206
0.074558
-0.154231
-0.171
-0.184486
0.0141094
0.016284
0.187977
0.084542
0.0610026
-0.0593898
-0.113077
-0.0783084
0.0468036
0.0655255
0.102971
0.125111
0.202201
-0.0314182
0.0179064
-0.155024
-0.0923442
-0.13557
-0.0524938
0.0958804
0.0637332
0.0293023
-0.0854248
-0.151685
-0.114674
-0.0913687
0.0102772
0.100222
0.154848
0.15061
-0.0395737
-0.120444
-0.212796
-0.0568581
0.00145755
0.0346316
0.126809
0.0686408
0.0690693
0.11554
0.0730015
0.54231
0.0155029
-0.00703217
-0.0961935
-0.148087
-0.0918656
0.013196
0.175444
0.169384
0.021397
-0.0221043
-0.154283
-0.00997281
0.00136265
0.0459975
0.1035
0.0670773
-0.0408149
-0.168264
-0.0291091
-0.0752747
0.0724636
0.0891445
0.0862681
0.104581
-0.00709004
-0.103734
-0.0916083
0.0122256
0.090068
0.171756
0.0884151
0.0434312
-0.102917
-0.0944223
-0.0409967
-0.0582194
0.0716175
0.074961
0.0325025
0.00448604
-0.143655
-0.0541196
-0.022983
0.0887835
0.132213
0.0628941
0.05364
-0.155352
-0.058786
-0.0664084
0.0113675
0.0873935
0.0608737
0.201866
0.00928848
-0.104078
-0.203952
-0.0790972
0.045205
0.082611
0.117567
-0.0210443
0.11648
0.281015
0.0356816
-0.0336592
-0.0682431
-0.0604645
0.0580237
0.117516
0.121114
-0.0236939
-0.0577393
-0.191425
0.0186779
0.0263425
0.0750018
0.0644906
-0.0386451
-0.226546
-0.131236
-0.0775916
0.135328
0.116222
0.131672
-0.0408081
-0.0727935
-0.120286
-0.0634514
0.0174597
0.121411
0.0835271
0.0272295
-0.091334
-0.130093
-0.0142794
0.108758
0.167946
0.0679726
-0.000846012
-0.0374803
-0.0534319
0.0129522
0.00886757
0.0929264
0.0727226
-0.0754073
-0.0570607
-0.0329028
-0.0338635
0.072926
0.0402257
0.0993076
0.0355931
-0.191471
-0.0696111
0.0233575
0.0975297
-0.0097333
0.0919237
-0.124198
-0.0944356
-0.0962611
0.0516068
0.0370343
0.0653082
0.191514
0.00723609
-0.00161825
-0.0446885
-0.0641613
-0.0775819
0.0528989
0.0915896
0.0500817
-0.0983816
-0.209507
-0.0769908
0.086802
0.122994
0.090554
-0.0272375
-0.083869
-0.0313449
0.0328337
0.0164091
0.0687318
-0.0601392
-0.0811943
-0.0681618
-0.00613827
0.046716
0.0831672
0.0494814
-0.0785058
-0.0761672
-0.0420301
0.125056
0.0747391
0.0390864
-0.0654928
-0.0510273
-0.0773145
0.102471
0.090039
0.0504391
-0.0623802
-0.134161
-0.016929
0.0214364
0.0553844
0.106092
0.0538855
-0.0358266
-0.0956376
-0.0731116
0.05256
0.0117556
0.0775704
0.00584996
-0.0800364
-0.0719767
0.021729
0.0715885
0.124486
-0.0267977
-0.0833506
-0.123581
0.00141314
0.0383028
0.128034
0.0316826
-0.121082
-0.0508809
-0.056095
0.0353487
0.226457
0.0233725
-0.0255506
-0.100399
0.0111631
0.0525899
0.0353292
0.0523441
-0.0825527
-0.120306
0.0198722
0.11097
0.0745705
-0.0465452
-0.117652
-0.0189946
0.0165947
0.123975
0.138665
-0.0157966
-0.0514981
-0.104388
-0.0108394
0.117384
0.0703357
0.0284626
-0.0981303
-0.0653066
0.0107389
0.154315
0.0825073
-0.00513365
0.0138691
-0.0698536
-0.00453365
0.168315
0.0279324
-0.013931
-0.083468
-0.122347
0.100573
0.0587425
0.0539018
0.0236378
-0.0901291
-0.0629486
-0.0176617
0.0319273
-0.0132439
-0.00645997
-0.14405
-0.0290686
0.0808032
0.0982502
0.0116311
-0.0169212
-0.0376011
0.0903645
0.0343789
-0.00234964
-0.0551693
-0.104491
-0.00816239
0.0969235
0.0348247
-0.0587699
-0.118264
-0.00502856
0.125581
0.162345
0.0241258
-0.132796
-0.0617823
0.0654435
0.050423
0.198142
-0.241569
-0.0538721
-0.0516885
0.112913
0.246975
0.0227141
-0.0868806
-0.104315
0.0993575
0.161228
0.0236954
-0.114057
-0.0404539
0.00155046
0.0923517
0.097533
0.0134773
-0.0525278
0.00895918
0.105876
0.184999
0.0170425
-0.130331
-0.0420522
-0.146147
-0.0590226
0.136206
0.128328
-0.0258403
